export const network = '{"type":"NeuralNetwork","sizes":[8,30,4],"layers":[{"weights":[],"biases":[]},{"weights":[[-0.5657373666763306,0.6264238357543945,1.4126009941101074,0.7297933101654053,0.32312604784965515,-0.2817290127277374,0.22762636840343475,0.4829360544681549],[-1.8794068098068237,2.090242862701416,2.159614324569702,-1.0124419927597046,0.9466487765312195,-1.2295881509780884,-0.3113596439361572,0.3247949182987213],[1.5267949104309082,0.8740639090538025,0.8228302001953125,-4.995077610015869,0.07343810051679611,-2.8418571949005127,0.8341338038444519,-0.10402390360832214],[-1.4575061798095703,0.09210336208343506,0.1970503181219101,-0.5720879435539246,0.48381224274635315,-0.37897464632987976,-1.2435593605041504,0.11857396364212036],[1.6175007820129395,-0.010126239620149136,-5.695309162139893,0.906159520149231,-3.02607798576355,1.463675856590271,0.3234642744064331,-0.0059385583736002445],[0.4693768620491028,-1.0882774591445923,-0.39919543266296387,1.4195281267166138,-0.3060641288757324,0.6787486672401428,-0.03517735004425049,-0.02686525136232376],[0.058174703270196915,-4.0901780128479,0.454127699136734,0.30503034591674805,-0.8918415307998657,0.715095579624176,1.271620273590088,-3.1622774600982666],[0.26567745208740234,1.2641981840133667,-2.812431573867798,0.6233482360839844,-1.3299996852874756,0.12641772627830505,-0.6689298152923584,-0.11106934398412704],[-2.829601764678955,-3.313596725463867,2.8748667240142822,4.788540363311768,0.5510738492012024,2.3553175926208496,-0.5359372496604919,-0.14554567635059357],[-1.2662270069122314,0.1575293391942978,0.920983612537384,1.6091564893722534,0.3534247577190399,0.5303648710250854,-0.9730724096298218,0.3054361045360565],[2.3015925884246826,-2.616441488265991,-2.6554312705993652,2.324193239212036,-0.9347473382949829,1.8325282335281372,0.2987619638442993,-0.9431001543998718],[-0.9959323406219482,-1.8613275289535522,2.24957275390625,1.6629810333251953,0.5401245355606079,0.6629305481910706,0.5425064563751221,-0.8240497708320618],[3.3945469856262207,-3.3961775302886963,1.8161541223526,-2.781280517578125,1.6108603477478027,-1.5213689804077148,0.4212132692337036,-0.7125940918922424],[-3.607745409011841,3.723874092102051,4.122686386108398,-2.1587116718292236,1.3573012351989746,-2.1577484607696533,-0.2412470281124115,0.49131035804748535],[-1.3077197074890137,6.253639221191406,-0.5995992422103882,-1.3218762874603271,-0.9077816605567932,-1.3445203304290771,0.7032023668289185,2.856673240661621],[1.4066376686096191,3.9985785484313965,-2.7820804119110107,-3.4143950939178467,-0.41494929790496826,-1.1149404048919678,-0.47946056723594666,0.4342358708381653],[1.0314444303512573,-1.83353590965271,1.0671014785766602,-0.7513605356216431,1.0360403060913086,-0.6980155110359192,0.21114513278007507,-0.6366301774978638],[-0.922892153263092,-4.4383463859558105,0.021105384454131126,0.21098580956459045,-1.4163236618041992,0.9046778082847595,2.9715921878814697,-4.76228666305542],[-0.4341890215873718,0.6871706247329712,-5.3340911865234375,0.6459502577781677,-5.712927341461182,-1.1560094356536865,0.7637431025505066,3.3633270263671875],[-3.0410525798797607,0.24546658992767334,0.549805223941803,-0.21104219555854797,1.261062502861023,-0.07976925373077393,-2.4133129119873047,-0.20350584387779236],[-2.8436741828918457,3.4017679691314697,-2.241194486618042,3.0503828525543213,-1.2571556568145752,1.242368221282959,-0.577396035194397,0.7407734990119934],[-0.7234451174736023,-0.8993073105812073,4.080505847930908,-0.4295945167541504,2.280808210372925,-0.5471346974372864,0.19027864933013916,-0.10729534924030304],[-7.223056793212891,0.5007525086402893,-0.6724680066108704,-0.6128981709480286,3.2123491764068604,0.5401808619499207,-4.99945068359375,-0.3473535180091858],[1.9203779697418213,-1.8498502969741821,2.899451971054077,-3.03298282623291,1.6332118511199951,-1.8558152914047241,0.11387912184000015,-0.30355772376060486],[0.42282891273498535,0.6942700147628784,-3.6102845668792725,1.2560021877288818,-2.1291985511779785,0.3825948238372803,-0.25146153569221497,0.2336350679397583],[0.9094685912132263,-1.5854477882385254,0.6650503873825073,-0.5533595681190491,1.1192432641983032,-0.589229166507721,0.17356672883033752,-0.6208045482635498],[0.08774153143167496,0.8363339900970459,-2.836082696914673,0.6794411540031433,-1.7722082138061523,0.04359715059399605,-0.2638069689273834,0.2551608979701996],[1.9321670532226562,0.453782856464386,-0.7540706396102905,-5.647822380065918,-0.8972629308700562,-4.09287166595459,1.85746431350708,0.9638630747795105],[0.5685755014419556,-2.239013433456421,-0.03844728320837021,0.9615468978881836,-0.001309071434661746,0.3807343542575836,-0.21486130356788635,-0.7897180318832397],[-0.6030286550521851,-0.15520775318145752,0.8466131687164307,1.8203920125961304,-0.10940786451101303,0.5933918952941895,-1.141535997390747,0.622578501701355]],"biases":[-0.3797522783279419,-0.4592313766479492,-0.762538492679596,-0.2858538031578064,0.2552501857280731,-0.18207314610481262,-0.8131378293037415,-0.4590969383716583,-0.14950405061244965,-0.7647649049758911,-0.22493478655815125,-0.2774618864059448,-0.5039694309234619,-0.35458502173423767,0.04238025099039078,-0.16090886294841766,-0.4520099461078644,-1.4055836200714111,-1.4823085069656372,-0.37072107195854187,0.2071676254272461,-0.10174231976270676,0.10759421437978745,-1.0389450788497925,-0.3651059567928314,-0.32461655139923096,-0.26393622159957886,-0.6162175536155701,-0.44443437457084656,-0.33623018860816956]},{"weights":[[-0.5337759256362915,0.25662389397621155,-4.144582748413086,0.5415462255477905,-2.867060661315918,-0.35927560925483704,-2.6770541667938232,-1.8961615562438965,3.20328426361084,-0.6209416389465332,-2.8211424350738525,1.3672152757644653,-3.2423834800720215,2.745117425918579,2.8407421112060547,-4.136322021484375,-1.711187720298767,-4.785672664642334,-3.727468252182007,1.2200233936309814,2.3159232139587402,1.9781299829483032,8.013376235961914,-3.779710054397583,-1.9809157848358154,-1.4279160499572754,-1.769126296043396,-4.442627429962158,-1.1382899284362793,0.154404416680336],[-1.0244088172912598,-2.398473024368286,-1.9331995248794556,-1.1527131795883179,0.13347923755645752,0.7003745436668396,2.3614134788513184,-0.7432571053504944,2.912977457046509,-0.6380312442779541,1.8129934072494507,0.17737004160881042,3.6657025814056396,-4.031619548797607,-4.352351665496826,-2.663856267929077,1.2554904222488403,4.337679862976074,-4.68031644821167,-2.246680736541748,-2.75903582572937,-0.059660278260707855,-6.747149467468262,1.2744641304016113,-1.0549676418304443,1.3408595323562622,-0.6120113134384155,-4.370128631591797,1.308550238609314,-0.17313368618488312],[-1.7215861082077026,-2.252086639404297,-1.3945581912994385,-0.47579994797706604,3.3903770446777344,-0.1298268437385559,-3.49261212348938,1.6452155113220215,-3.2793262004852295,-0.7686885595321655,1.4628181457519531,-2.5813798904418945,-1.6472164392471313,-4.30689001083374,4.658801078796387,2.0720388889312744,-1.0367804765701294,-4.244858741760254,6.162539958953857,-1.209389090538025,1.7633095979690552,-3.0910403728485107,-2.9402565956115723,-2.4608070850372314,1.5806553363800049,-0.6125184893608093,1.5800673961639404,-1.0001486539840698,-0.7865646481513977,-0.33340635895729065],[-0.7082943320274353,0.9941667318344116,2.7301201820373535,-0.3267495930194855,-4.580848217010498,-1.759409785270691,-1.484711766242981,-1.193893551826477,-4.80633020401001,-2.3578152656555176,-3.167189121246338,-1.0654679536819458,2.081385612487793,3.4544806480407715,1.2865662574768066,1.5679208040237427,0.49187666177749634,-1.602635383605957,-4.629088401794434,-2.068294048309326,-4.110912322998047,1.712869644165039,-5.905871391296387,1.8028992414474487,-3.151040554046631,0.4457114338874817,-1.626197338104248,3.8125405311584473,-0.9698517918586731,-2.4290452003479004]],"biases":[-1.116290807723999,-0.4565694332122803,-0.3485637605190277,-1.012113094329834]}],"inputLookup":null,"inputLookupLength":0,"outputLookup":null,"outputLookupLength":0,"options":{"inputSize":0,"outputSize":0,"binaryThresh":0.5,"hiddenLayers":[30],"activation":"sigmoid"},"trainOpts":{"activation":"sigmoid","iterations":20000,"errorThresh":0.005,"log":false,"logPeriod":10,"leakyReluAlpha":0.01,"learningRate":0.3,"momentum":0.1,"callbackPeriod":1,"timeout":"Infinity","beta1":0.9,"beta2":0.999,"epsilon":1e-8}}';